%YAML:1.0
---
opencv_ml_svm:
   format: 3
   svmType: C_SVC
   kernel:
      type: RBF
      gamma: 1.
   C: 1.
   term_criteria: { epsilon:1.1920928955078125e-07, iterations:1000 }
   var_count: 1
   class_count: 2
   class_labels: !!opencv-matrix
      rows: 2
      cols: 1
      dt: i
      data: [ -1, 1 ]
   sv_total: 50
   support_vectors:
      - [ 1.40129846e-45 ]
      - [ 0. ]
      - [ 2.80259693e-45 ]
      - [ 2.80259693e-45 ]
      - [ 0. ]
      - [ 1.40129846e-45 ]
      - [ 0. ]
      - [ 0. ]
      - [ 1.40129846e-45 ]
      - [ 2.80259693e-45 ]
      - [ 0. ]
      - [ 0. ]
      - [ 1.40129846e-45 ]
      - [ 2.80259693e-45 ]
      - [ 0. ]
      - [ 0. ]
      - [ 0. ]
      - [ 2.80259693e-45 ]
      - [ 2.80259693e-45 ]
      - [ 1.40129846e-45 ]
      - [ 0. ]
      - [ 1.40129846e-45 ]
      - [ 0. ]
      - [ 0. ]
      - [ 1.40129846e-45 ]
      - [ 0. ]
      - [ 0. ]
      - [ 2.80259693e-45 ]
      - [ 2.80259693e-45 ]
      - [ 1.40129846e-45 ]
      - [ 1.40129846e-45 ]
      - [ 1.40129846e-45 ]
      - [ 0. ]
      - [ 0. ]
      - [ 2.80259693e-45 ]
      - [ 0. ]
      - [ 0. ]
      - [ 0. ]
      - [ 0. ]
      - [ 2.80259693e-45 ]
      - [ 0. ]
      - [ 2.80259693e-45 ]
      - [ 2.80259693e-45 ]
      - [ 0. ]
      - [ 2.80259693e-45 ]
      - [ 0. ]
      - [ 1.40129846e-45 ]
      - [ 0. ]
      - [ 0. ]
      - [ 1.40129846e-45 ]
   decision_functions:
      -
         sv_count: 50
         rho: 0.
         alpha: [ 1., 1., 1., 1., 1., 1., 1., 1., 1., 1., 1., 1., 1., 1.,
             1., 1., 1., 1., 1., 1., 1., 1., 1., 1., 1., -1., -1., -1.,
             -1., -1., -1., -1., -1., -1., -1., -1., -1., -1., -1., -1.,
             -1., -1., -1., -1., -1., -1., -1., -1., -1., -1. ]
         index: [ 0, 31, 2, 3, 27, 5, 12, 28, 8, 9, 29, 30, 34, 13, 49,
             39, 41, 17, 18, 19, 42, 21, 44, 46, 24, 1, 4, 7, 10, 11, 6,
             14, 15, 16, 20, 22, 23, 25, 38, 32, 40, 33, 26, 37, 35, 45,
             36, 47, 48, 43 ]
